[[-5.99975737e-02 -8.66884130e-02  2.01487678e-01 -5.48016915e-02]
 [-1.30700646e+00 -1.47572358e-01  1.28984750e+00  1.64731314e-01]
 [ 4.47617293e-01  8.37728519e-01 -5.06811559e-01 -7.78534254e-01]
 [-2.29328799e-01  6.37003090e-01 -2.69463731e-01 -1.38210560e-01]
 [-3.55214089e-01 -4.06857310e-01 -4.00575002e-01  1.16264640e+00]
 [ 1.19066600e-01 -2.75968736e-02 -4.49250702e-02 -4.65446564e-02]
 [ 6.79155140e-02  3.18670750e-02 -2.79188487e-03 -9.69907042e-02]
 [ 3.98555368e-01  2.01542973e-01 -3.26519198e-01 -2.73579143e-01]
 [ 1.58172329e-02 -5.41203853e-02  1.17099024e-01 -7.87958712e-02]
 [-9.49531156e-02  3.37154104e-01 -1.75888878e-01 -6.63121103e-02]
 [-5.30072046e-02  3.35210199e-02  4.83339316e-03  1.46527916e-02]
 [-1.09484974e-01 -1.08728182e-01  2.95217939e-01 -7.70047829e-02]
 [ 1.31442249e-01 -1.03313380e-01 -1.94367090e-02 -8.69216006e-03]
 [-1.11494369e-01  7.11162158e-02  5.72591645e-02 -1.68810118e-02]
 [-1.20261499e-02  2.87444082e-02 -8.52825618e-03 -8.19000216e-03]
 [ 3.70677436e-03  1.29712932e-03  2.32686148e-02 -2.82725185e-02]
 [-9.30045892e-02  2.07868639e-01 -9.11338342e-02 -2.37302156e-02]
 [-3.00661807e-02 -1.24887847e-02 -7.35413303e-02  1.16096296e-01]
 [-3.70660624e-02 -8.26735671e-02  1.86416279e-01 -6.66766500e-02]
 [ 7.40098048e-02 -5.04395878e-02 -4.06388103e-03 -1.95063359e-02]
 [-1.56118878e-01 -9.73406483e-02 -1.25958630e-01  3.79418156e-01]
 [-6.39539861e-03 -4.66630422e-02  5.42382436e-02 -1.17980274e-03]
 [-5.45519860e-01 -2.94947116e-01 -4.54755452e-01  1.29522243e+00]
 [ 1.69337014e-01 -3.87410646e-02 -1.01363455e-01 -2.92324937e-02]
 [-4.24301957e-02  2.94917454e-02 -5.77766066e-02  7.07150569e-02]
 [-2.97266248e-01  5.82727005e-02  7.72020161e-02  1.61791531e-01]
 [ 2.18730953e-01 -1.14035153e-01 -7.50893094e-02 -2.96064908e-02]
 [-2.37609325e-02 -3.22233518e-03 -8.20541958e-02  1.09037463e-01]
 [-2.75451616e-02 -1.19990131e-02 -1.04245099e-02  4.99686846e-02]
 [-1.02997510e-01  4.89366219e-01 -2.67682689e-01 -1.18686019e-01]
 [-1.40715918e-01 -1.17843782e-01  3.43537174e-01 -8.49774738e-02]
 [-1.09264274e-01  2.06388600e-01 -7.68541214e-02 -2.02702046e-02]
 [ 7.36638280e-02 -3.67365790e-02 -2.33848757e-02 -1.35423733e-02]
 [-3.83190402e-02 -2.06309658e-02 -9.60968871e-02  1.55046893e-01]
 [-2.57287241e-02 -8.18722637e-03 -3.66210077e-02  7.05369582e-02]
 [ 2.28764216e-01 -2.89289178e-01 -3.06608411e-01  3.67133374e-01]
 [ 6.94274028e-02 -1.90927892e-02 -2.39813322e-02 -2.63532813e-02]
 [ 1.18441379e-01 -1.40672564e-01  5.01012798e-02 -2.78700945e-02]
 [ 8.54168628e-02 -3.77978770e-02 -4.88867393e-02  1.26775353e-03]
 [ 1.27837093e-01 -2.65733283e-02 -4.02946089e-02 -6.09691558e-02]
 [-4.61124335e-01  1.07196335e+00 -6.26205754e-02 -5.48218439e-01]
 [ 9.44548210e-03  1.29875479e-03 -6.34823015e-03 -4.39600674e-03]
 [-1.34789464e-01 -7.13901019e-02  9.20608139e-02  1.14118752e-01]
 [-9.93699717e-02  3.35175926e-02 -4.32079987e-02  1.09060378e-01]
 [-2.06364948e-01 -2.47804829e-01  6.15685507e-01 -1.61515730e-01]
 [-5.97390899e-02  2.40616426e-02 -3.61523897e-03  3.92926863e-02]
 [-2.47638845e-02  3.71246254e-02 -7.21598768e-03 -5.14475327e-03]
 [ 1.21535268e-01 -4.77501236e-02 -5.39845608e-02 -1.98005840e-02]
 [ 8.02301136e-02 -4.80831992e-02 -2.02917635e-02 -1.18551509e-02]
 [-7.08992857e-03 -3.14338356e-05 -1.96809994e-02  2.68023618e-02]
 [ 8.68273336e-02  7.10817109e-02 -2.42678426e-02 -1.33641202e-01]
 [-3.77840315e-02 -2.58467849e-02 -1.34947406e-01  1.98578223e-01]
 [ 1.95871950e-02  4.63310949e-02 -3.63855637e-02 -2.95327262e-02]
 [-3.29420776e-02  7.35545822e-02 -2.60580508e-02 -1.45544538e-02]
 [-6.67632581e-02 -2.62221975e-02 -7.79173297e-02  1.70902785e-01]
 [-4.46392897e-02 -7.47274569e-02  2.03178907e-01 -8.38121607e-02]
 [ 2.93341560e-02 -1.12716274e-02 -2.50147225e-02  6.95219394e-03]
 [-8.65649506e-03  2.04631229e-02 -1.50379714e-02  3.23134360e-03]
 [ 7.70716760e-04 -3.35790555e-02  3.08598308e-02  1.94850799e-03]
 [-1.03369692e-02 -1.00732342e-02  3.43866398e-03  1.69715394e-02]
 [ 1.94992475e-02 -2.32380112e-04 -4.79268651e-02  2.86599976e-02]
 [-6.76602960e-02 -3.09993585e-02 -7.31710388e-02  1.71830693e-01]
 [ 2.61979088e-02  3.33057257e-03 -4.02743239e-02  1.07458426e-02]
 [ 8.13343649e-02 -6.70760655e-02 -2.86981102e-02  1.44398108e-02]
 [ 2.20714592e-01 -3.38746073e-01 -2.29847824e-02  1.41016263e-01]
 [-4.91114037e-02 -3.08981233e-02 -1.12838931e-01  1.92848458e-01]
 [-3.07303795e-02  3.58869051e-02  5.11818715e-04 -5.66834428e-03]
 [-3.54254958e-02  4.25434384e-02 -3.47791255e-03 -3.64003010e-03]
 [ 6.28024729e-02 -7.05294466e-02 -2.73177258e-02  3.50446994e-02]
 [ 1.40544098e-02 -2.49263404e-02  3.86347791e-02 -2.77628485e-02]
 [ 5.88685820e-02  2.72738219e-02 -7.06755900e-02 -1.54668139e-02]
 [-5.44356309e-02 -3.59138018e-02 -8.51469271e-02  1.75496360e-01]
 [ 8.06098539e-02 -1.38223331e-02 -4.68289679e-02 -1.99585529e-02]
 [ 5.00078706e-02 -1.06480386e-01  4.02722275e-02  1.62002878e-02]
 [-8.54160958e-02  1.09364841e-01 -1.67507789e-02 -7.19796673e-03]
 [ 1.98664673e-02 -3.30487074e-02  2.00767552e-02 -6.89451510e-03]
 [-1.01033304e-01  2.07206717e-01 -8.06126209e-02 -2.55607921e-02]
 [ 5.88135491e-02 -2.44484214e-02 -9.59670051e-03 -2.47684271e-02]
 [ 2.87400735e-02  1.12709802e-02 -2.91446152e-02 -1.08664385e-02]
 [ 1.49813388e-01 -8.26532387e-02 -3.30328284e-02 -3.41273208e-02]
 [-2.94069571e-01  5.95255316e-01 -1.94389037e-01 -1.06796708e-01]
 [-1.47205720e-01  3.63594450e-01 -1.35334025e-01 -8.10547050e-02]
 [-1.04984897e-01  3.68053191e-02  2.13393147e-01 -1.45213569e-01]
 [-1.29324583e-01  3.28471658e-01 -1.15658932e-01 -8.34881424e-02]
 [-3.62402899e-02  2.76651220e-02  2.84198847e-02 -1.98447169e-02]
 [-2.04052232e-02 -2.60540782e-02 -1.05818066e-03  4.75174820e-02]
 [ 1.21556800e-03 -1.06620325e-02 -3.11564318e-02  4.06028963e-02]
 [ 2.52115756e-01 -5.24571132e-01  8.13750600e-02  1.91080316e-01]
 [-4.84138307e-03 -7.59307383e-02  7.49764378e-02  5.79568353e-03]
 [ 1.52008460e-01 -9.37860002e-02 -3.21761204e-02 -2.60463396e-02]
 [ 8.80774406e-02 -7.05285994e-02  1.79784654e-02 -3.55273066e-02]
 [ 2.71957611e-02 -8.96709042e-02  4.10962357e-02  2.13789074e-02]
 [-2.65069554e-02  4.90949436e-02 -2.84210307e-03 -1.97458851e-02]
 [-1.23506738e-01  3.78647624e-01 -1.71960896e-01 -8.31799899e-02]
 [-1.75372568e-02  6.89362671e-02 -2.91117052e-02 -2.22873051e-02]
 [ 3.67687853e-02 -4.43900198e-02 -3.26956649e-02  4.03168993e-02]
 [ 4.28266153e-02 -1.83338528e-02 -3.34910267e-02  8.99826420e-03]
 [-8.13800195e-02  1.11157249e-01 -2.06395289e-02 -9.13770075e-03]
 [-1.36081262e-01 -3.97160818e-02  3.31383868e-01 -1.55586525e-01]
 [-5.61423010e-04  1.42611169e-02  6.30172747e-03 -2.00014213e-02]
 [-4.92596019e-02  2.47284405e-01 -1.39647210e-01 -5.83775935e-02]
 [ 1.13887945e-01 -8.19777067e-02 -1.91233983e-02 -1.27868396e-02]
 [ 3.69886690e-02 -6.25432443e-03 -3.82870890e-02  7.55274444e-03]
 [ 4.73314836e-01 -2.10991777e-01 -1.28633559e-01 -1.33689499e-01]
 [-8.83488547e-02  9.04530815e-03 -1.78455139e-02  9.71490604e-02]
 [ 1.63394443e-02  4.93688309e-02 -3.90404678e-02 -2.66678075e-02]
 [ 2.30925255e-01 -6.95258258e-03 -1.15397796e-01 -1.08574877e-01]
 [-7.48736237e-02  2.88389634e-01 -1.48428719e-01 -6.50872905e-02]
 [ 2.81205391e-01 -1.30725968e-01 -8.19402805e-02 -6.85391419e-02]
 [ 1.05488675e-01 -1.49210266e-01  5.59063122e-02 -1.21847214e-02]
 [ 1.16184210e+00  6.60312763e-01 -7.26831681e-01 -1.09532318e+00]
 [-4.34517017e-02  5.87876630e-02 -3.18070856e-02  1.64711243e-02]
 [-1.11279170e-01  1.68296618e-01 -6.81801415e-02  1.11626931e-02]
 [-3.48921738e-01 -2.42161948e-01  8.54638752e-01 -2.63555066e-01]
 [-4.86500019e-02 -9.26172482e-02  1.74024178e-01 -3.27569278e-02]
 [-4.28793007e-03 -3.71613446e-02  6.27992465e-02 -2.13499719e-02]
 [ 1.39148839e+00 -1.59927107e+00 -1.03167844e+00  1.23946112e+00]
 [-5.97437346e-02  4.78877648e-02  1.89457898e-02 -7.08981998e-03]
 [ 9.21887927e-02 -5.61426748e-02 -2.25575806e-02 -1.34885374e-02]
 [-4.92807554e-02 -8.84201558e-02  8.04204889e-02  5.72804222e-02]
 [-8.36776555e-02  1.78705960e-02  2.60585912e-02  3.97484682e-02]
 [-3.10479579e-02  5.91176999e-02  1.23219622e-02 -4.03917042e-02]
 [-2.64664050e-02  7.09789529e-02 -5.32223813e-02  8.70983340e-03]
 [-2.03496197e-02  1.13702771e-02 -6.17254179e-02  7.07047606e-02]
 [ 7.48110894e-02 -5.72081679e-02 -3.59482725e-02  1.83453509e-02]
 [ 1.90760645e-02  8.65750680e-03 -1.03957920e-02 -1.73377794e-02]
 [-4.75163535e-02 -1.76280001e-02  8.64548427e-02 -2.13104890e-02]
 [ 1.83365721e-01 -5.14071806e-02 -5.68828967e-02 -7.50756433e-02]
 [-1.23904724e-01 -8.44457092e-02 -1.80283628e-01  3.88634062e-01]
 [-5.75076877e-02  7.26604842e-02 -5.86909623e-03 -9.28370024e-03]
 [ 1.07081432e-01 -8.40286525e-02 -2.57161087e-02  2.66332921e-03]
 [ 5.63291686e-01 -3.05100892e-01 -1.38990723e-01 -1.19200071e-01]
 [-4.45712205e-02  4.54849458e-02 -1.62566165e-02  1.53428912e-02]
 [-3.07169486e-02  6.15086773e-02 -3.52313468e-02  4.43961804e-03]
 [ 5.90838868e-02 -1.50269255e-02 -3.82941133e-02 -5.76284795e-03]
 [-4.53081098e-02 -7.58470809e-02  2.06223089e-01 -8.50678988e-02]
 [-4.38678763e-02  4.03916307e-02 -2.19131264e-02  2.53893720e-02]
 [ 7.84036490e-02  2.06707481e-01 -2.03484320e-01 -8.16268102e-02]
 [ 1.03278960e-02  3.52744795e-03 -4.77590235e-03 -9.07944160e-03]
 [ 2.21058708e-01 -1.12022723e-01 -5.77054164e-02 -5.13305688e-02]
 [-4.34319853e-02 -9.14510594e-02  2.01085400e-01 -6.62023553e-02]
 [-2.94338994e-02 -2.04592453e-02  1.28725041e-02  3.70206406e-02]
 [ 1.86879951e-01 -6.81903871e-01  9.95262433e-01 -5.00238513e-01]
 [ 4.55057764e-02 -7.07118937e-02  2.05461701e-02  4.65994720e-03]
 [-4.32650723e-02 -6.89794667e-02  1.70715936e-01 -5.84713972e-02]
 [-4.04959586e-02 -2.93771243e-02  7.17345029e-02 -1.86141998e-03]
 [-6.66426705e-02 -5.21855760e-01  8.53324723e-01 -2.64826292e-01]
 [-6.64659403e-02 -4.77392806e-02 -4.43662072e-02  1.58571428e-01]
 [-4.09227277e-02 -2.69299553e-02 -8.81325451e-02  1.55985228e-01]
 [-6.14038001e-02  4.25677787e-02  8.16377923e-02 -6.28017709e-02]
 [ 1.20944136e-02  4.92615995e-03 -3.17106666e-02  1.46900931e-02]
 [-1.24166490e-01 -1.85613698e-01  4.65786386e-01 -1.56006197e-01]
 [-5.35529612e-02  6.22406232e-02  3.53002160e-02 -4.39878780e-02]
 [ 2.25020430e-02 -1.06359287e-02 -2.12126958e-02  9.34658149e-03]
 [ 1.93534177e-02 -1.53049319e-02  8.16992073e-03 -1.22184066e-02]
 [ 1.35218341e-02 -1.79622074e-01  1.00093526e-01  6.60067133e-02]
 [-5.05660778e-02  7.06026387e-02 -3.14459152e-02  1.14093542e-02]
 [-6.04251854e-02 -6.15654742e-02  1.95365703e-01 -7.33750433e-02]
 [ 2.21288420e-01 -1.15368486e-01 -7.59672756e-02 -2.99526586e-02]
 [-4.69561119e-02  7.43914404e-02 -1.78948252e-02 -9.54050331e-03]
 [-1.09118054e-01  2.84615151e-01 -1.00099469e-01 -7.53976282e-02]
 [-7.09178263e-02 -1.25729139e-01  3.73764802e-01 -1.77117836e-01]]